digraph Tree {
node [shape=box, style="filled", color="black"] ;
0 [label="petal width (cm) <= 0.8\nentropy = 1.581\nsamples = 112\nvalue = [37, 34, 41]\nclass = virginica", fillcolor="#f8f4fe"] ;
1 [label="entropy = 0.0\nsamples = 37\nvalue = [37, 0, 0]\nclass = setosa", fillcolor="#e58139"] ;
0 -> 1 [labeldistance=2.5, labelangle=45, headlabel="True"] ;
2 [label="petal length (cm) <= 4.95\nentropy = 0.994\nsamples = 75\nvalue = [0, 34, 41]\nclass = virginica", fillcolor="#e9ddfb"] ;
0 -> 2 [labeldistance=2.5, labelangle=-45, headlabel="False"] ;
3 [label="petal width (cm) <= 1.65\nentropy = 0.414\nsamples = 36\nvalue = [0, 33, 3]\nclass = versicolor", fillcolor="#4be78c"] ;
2 -> 3 ;
4 [label="entropy = 0.0\nsamples = 32\nvalue = [0, 32, 0]\nclass = versicolor", fillcolor="#39e581"] ;
3 -> 4 ;
5 [label="sepal width (cm) <= 3.1\nentropy = 0.811\nsamples = 4\nvalue = [0, 1, 3]\nclass = virginica", fillcolor="#ab7bee"] ;
3 -> 5 ;
6 [label="entropy = 0.0\nsamples = 3\nvalue = [0, 0, 3]\nclass = virginica", fillcolor="#8139e5"] ;
5 -> 6 ;
7 [label="entropy = 0.0\nsamples = 1\nvalue = [0, 1, 0]\nclass = versicolor", fillcolor="#39e581"] ;
5 -> 7 ;
8 [label="petal width (cm) <= 1.75\nentropy = 0.172\nsamples = 39\nvalue = [0, 1, 38]\nclass = virginica", fillcolor="#843ee6"] ;
2 -> 8 ;
9 [label="petal width (cm) <= 1.65\nentropy = 0.811\nsamples = 4\nvalue = [0, 1, 3]\nclass = virginica", fillcolor="#ab7bee"] ;
8 -> 9 ;
10 [label="entropy = 0.0\nsamples = 3\nvalue = [0, 0, 3]\nclass = virginica", fillcolor="#8139e5"] ;
9 -> 10 ;
11 [label="entropy = 0.0\nsamples = 1\nvalue = [0, 1, 0]\nclass = versicolor", fillcolor="#39e581"] ;
9 -> 11 ;
12 [label="entropy = 0.0\nsamples = 35\nvalue = [0, 0, 35]\nclass = virginica", fillcolor="#8139e5"] ;
8 -> 12 ;
}